<?xml version="1.0"?>
<opencv_storage>
<cascade>
  <stageType>BOOST</stageType>
  <featureType>HAAR</featureType>
  <height>18</height>
  <width>18</width>
  <stageParams>
    <boostType>GAB</boostType>
    <minHitRate>9.9500000476837158e-01</minHitRate>
    <maxFalseAlarm>5.0000000000000000e-01</maxFalseAlarm>
    <weightTrimRate>9.4999999999999996e-01</weightTrimRate>
    <maxDepth>1</maxDepth>
    <maxWeakCount>100</maxWeakCount></stageParams>
  <featureParams>
    <maxCatCount>0</maxCatCount>
    <featSize>1</featSize>
    <mode>BASIC</mode></featureParams>
  <stageNum>10</stageNum>
  <stages>
    <!-- stage 0 -->
    <_>
      <maxWeakCount>10</maxWeakCount>
      <stageThreshold>-8.7529921531677246e-01</stageThreshold>
      <weakClassifiers>
        <_>
          <internalNodes>
            0 -1 65 1.0059254709631205e-03</internalNodes>
          <leafValues>
            -3.1412893533706665e-01 6.1579895019531250e-01</leafValues></_>
        <_>
          <internalNodes>
            0 -1 194 1.7956614494323730e-02</internalNodes>
          <leafValues>
            -2.9574269056320190e-01 5.2914100885391235e-01</leafValues></_>
        <_>
          <internalNodes>
            0 -1 158 2.1627061069011688e-03</internalNodes>
          <leafValues>
            -4.0074950456619263e-01 3.7987664341926575e-01</leafValues></_>
        <_>
          <internalNodes>
            0 -1 120 3.4370519220829010e-02</internalNodes>
          <leafValues>
            1.7166078090667725e-01 -7.5136762857437134e-01</leafValues></_>
        <_>
          <internalNodes>
            0 -1 26 5.6214393116533756e-03</internalNodes>
          <leafValues>
            -2.8604161739349365e-01 3.9094832539558411e-01</leafValues></_>
        <_>
          <internalNodes>
            0 -1 98 -1.7902199178934097e-02</internalNodes>
          <leafValues>
            -7.7759999036788940e-01 1.2752541899681091e-01</leafValues></_>
        <_>
          <internalNodes>
            0 -1 101 3.3793687820434570e-02</internalNodes>
          <leafValues>
            9.8317287862300873e-02 -8.6855792999267578e-01</leafValues></_>
        <_>
          <internalNodes>
            0 -1 224 2.1283035166561604e-03</internalNodes>
          <leafValues>
            -2.6154732704162598e-01 3.4646451473236084e-01</leafValues></_>
        <_>
          <internalNodes>
            0 -1 188 -6.8193674087524414e-04</internalNodes>
          <leafValues>
            2.7107125520706177e-01 -3.1803652644157410e-01</leafValues></_>
        <_>
          <internalNodes>
            0 -1 51 -4.9534172285348177e-04</internalNodes>
          <leafValues>
            2.0058523118495941e-01 -4.6058025956153870e-01</leafValues></_></weakClassifiers></_>
    <!-- stage 1 -->
    <_>
      <maxWeakCount>15</maxWeakCount>
      <stageThreshold>-8.5330712795257568e-01</stageThreshold>
      <weakClassifiers>
        <_>
          <internalNodes>
            0 -1 61 -1.4479324221611023e-02</internalNodes>
          <leafValues>
            -5.7491290569305420e-01 4.5669662952423096e-01</leafValues></_>
        <_>
          <internalNodes>
            0 -1 83 1.8569095991551876e-03</internalNodes>
          <leafValues>
            -3.5444042086601257e-01 3.7751787900924683e-01</leafValues></_>
        <_>
          <internalNodes>
            0 -1 205 2.5200070813298225e-03</internalNodes>
          <leafValues>
            -3.3761954307556152e-01 3.3832031488418579e-01</leafValues></_>
        <_>
          <internalNodes>
            0 -1 131 3.7897406145930290e-03</internalNodes>
          <leafValues>
            -3.2723188400268555e-01 3.0539527535438538e-01</leafValues></_>
        <_>
          <internalNodes>
            0 -1 64 1.9457247108221054e-03</internalNodes>
          <leafValues>
            -3.5212367773056030e-01 2.6914864778518677e-01</leafValues></_>
        <_>
          <internalNodes>
            0 -1 73 -1.0191737674176693e-02</internalNodes>
          <leafValues>
            5.3387647867202759e-01 -1.8746286630630493e-01</leafValues></_>
        <_>
          <internalNodes>
            0 -1 74 1.0715777054429054e-02</internalNodes>
          <leafValues>
            -1.6090974211692810e-01 5.9721374511718750e-01</leafValues></_>
        <_>
          <internalNodes>
            0 -1 124 -1.5760060399770737e-02</internalNodes>
          <leafValues>
            -9.4504255056381226e-01 9.5454148948192596e-02</leafValues></_>
        <_>
          <internalNodes>
            0 -1 220 7.6606753282248974e-03</internalNodes>
          <leafValues>
            -2.6670888066291809e-01 3.2122075557708740e-01</leafValues></_>
        <_>
          <internalNodes>
            0 -1 15 2.5932509452104568e-03</internalNodes>
          <leafValues>
            -1.8616822361946106e-01 4.1367793083190918e-01</leafValues></_>
        <_>
          <internalNodes>
            0 -1 94 2.0050317049026489e-02</internalNodes>
          <leafValues>
            1.5037406980991364e-01 -5.4558575153350830e-01</leafValues></_>
        <_>
          <internalNodes>
            0 -1 43 -8.1579410471022129e-04</internalNodes>
          <leafValues>
            3.1978052854537964e-01 -2.5010365247726440e-01</leafValues></_>
        <_>
          <internalNodes>
            0 -1 122 -4.6980967745184898e-03</internalNodes>
          <leafValues>
            -8.1303131580352783e-01 1.0258079320192337e-01</leafValues></_>
        <_>
          <internalNodes>
            0 -1 125 1.3190546073019505e-02</internalNodes>
          <leafValues>
            6.7213937640190125e-02 -9.0886539220809937e-01</leafValues></_>
        <_>
          <internalNodes>
            0 -1 76 -3.8402236998081207e-02</internalNodes>
          <leafValues>
            -8.2516682147979736e-01 6.5094344317913055e-02</leafValues></_></weakClassifiers></_>
    <!-- stage 2 -->
    <_>
      <maxWeakCount>19</maxWeakCount>
      <stageThreshold>-9.1171836853027344e-01</stageThreshold>
      <weakClassifiers>
        <_>
          <internalNodes>
            0 -1 80 5.9980610385537148e-03</internalNodes>
          <leafValues>
            -8.2251079380512238e-02 5.9349590539932251e-01</leafValues></_>
        <_>
          <internalNodes>
            0 -1 138 -2.2400079295039177e-02</internalNodes>
          <leafValues>
            6.7455899715423584e-01 -9.7299315035343170e-02</leafValues></_>
        <_>
          <internalNodes>
            0 -1 142 4.5688124373555183e-03</internalNodes>
          <leafValues>
            -2.0307637751102448e-01 4.9467161297798157e-01</leafValues></_>
        <_>
          <internalNodes>
            0 -1 157 1.8830794841051102e-02</internalNodes>
          <leafValues>
            1.1170512437820435e-01 -7.0920050144195557e-01</leafValues></_>
        <_>
          <internalNodes>
            0 -1 129 -3.0724234879016876e-02</internalNodes>
          <leafValues>
            -7.1094733476638794e-01 9.6844084560871124e-02</leafValues></_>
        <_>
          <internalNodes>
            0 -1 143 -8.5160881280899048e-03</internalNodes>
          <leafValues>
            5.6165158748626709e-01 -1.4951442182064056e-01</leafValues></_>
        <_>
          <internalNodes>
            0 -1 211 8.2853739149868488e-04</internalNodes>
          <leafValues>
            -2.2954355180263519e-01 3.5815161466598511e-01</leafValues></_>
        <_>
          <internalNodes>
            0 -1 108 1.1286502704024315e-02</internalNodes>
          <leafValues>
            -2.0010939240455627e-01 3.6434990167617798e-01</leafValues></_>
        <_>
          <internalNodes>
            0 -1 68 -1.0527045466005802e-02</internalNodes>
          <leafValues>
            4.4427090883255005e-01 -1.4458757638931274e-01</leafValues></_>
        <_>
          <internalNodes>
            0 -1 222 -2.3508084937930107e-02</internalNodes>
          <leafValues>
            3.9742115139961243e-01 -1.8157401680946350e-01</leafValues></_>
        <_>
          <internalNodes>
            0 -1 70 -3.2875575125217438e-03</internalNodes>
          <leafValues>
            3.4658575057983398e-01 -2.1475473046302795e-01</leafValues></_>
        <_>
          <internalNodes>
            0 -1 162 -1.7601205036044121e-02</internalNodes>
          <leafValues>
            -7.4732834100723267e-01 1.1326922476291656e-01</leafValues></_>
        <_>
          <internalNodes>
            0 -1 73 1.1441538110375404e-02</internalNodes>
          <leafValues>
            -1.4212538301944733e-01 5.1101666688919067e-01</leafValues></_>
        <_>
          <internalNodes>
            0 -1 57 9.3081556260585785e-02</internalNodes>
          <leafValues>
            8.6986057460308075e-02 -8.2224917411804199e-01</leafValues></_>
        <_>
          <internalNodes>
            0 -1 60 5.2961008623242378e-03</internalNodes>
          <leafValues>
            -5.0831437110900879e-01 1.7624869942665100e-01</leafValues></_>
        <_>
          <internalNodes>
            0 -1 228 1.5211431309580803e-03</internalNodes>
          <leafValues>
            -2.3694498836994171e-01 2.9428383708000183e-01</leafValues></_>
        <_>
          <internalNodes>
            0 -1 233 -1.8499497091397643e-03</internalNodes>
          <leafValues>
            3.1116926670074463e-01 -2.0550853013992310e-01</leafValues></_>
        <_>
          <internalNodes>
            0 -1 12 -2.4043060839176178e-02</internalNodes>
          <leafValues>
            4.2985942959785461e-01 -1.5988782048225403e-01</leafValues></_>
        <_>
          <internalNodes>
            0 -1 81 9.7743928432464600e-02</internalNodes>
          <leafValues>
            9.9415257573127747e-02 -8.5185700654983521e-01</leafValues></_></weakClassifiers></_>
    <!-- stage 3 -->
    <_>
      <maxWeakCount>25</maxWeakCount>
      <stageThreshold>-7.9157352447509766e-01</stageThreshold>
      <weakClassifiers>
        <_>
          <internalNodes>
            0 -1 84 2.4354683700948954e-03</internalNodes>
          <leafValues>
            -4.6964488923549652e-02 5.5075311660766602e-01</leafValues></_>
        <_>
          <internalNodes>
            0 -1 87 1.0079685598611832e-02</internalNodes>
          <leafValues>
            1.3357026875019073e-01 -8.3034795522689819e-01</leafValues></_>
        <_>
          <internalNodes>
            0 -1 82 3.0446080490946770e-03</internalNodes>
          <leafValues>
            -2.7830770611763000e-01 2.9107579588890076e-01</leafValues></_>
        <_>
          <internalNodes>
            0 -1 165 1.8315678462386131e-02</internalNodes>
          <leafValues>
            1.0645928233861923e-01 -7.2351861000061035e-01</leafValues></_>
        <_>
          <internalNodes>
            0 -1 115 -1.6717268154025078e-02</internalNodes>
          <leafValues>
            3.3867558836936951e-01 -2.2047600150108337e-01</leafValues></_>
        <_>
          <internalNodes>
            0 -1 133 4.2984507977962494e-02</internalNodes>
          <leafValues>
            9.2402316629886627e-02 -6.7477142810821533e-01</leafValues></_>
        <_>
          <internalNodes>
            0 -1 216 -2.6150181889533997e-02</internalNodes>
          <leafValues>
            3.5054039955139160e-01 -2.0491679012775421e-01</leafValues></_>
        <_>
          <internalNodes>
            0 -1 49 1.5183568000793457e-01</internalNodes>
          <leafValues>
            1.1758510023355484e-01 -7.0282280445098877e-01</leafValues></_>
        <_>
          <internalNodes>
            0 -1 126 -1.7176434397697449e-02</internalNodes>
          <leafValues>
            -7.9016542434692383e-01 3.3332776278257370e-02</leafValues></_>
        <_>
          <internalNodes>
            0 -1 122 6.2699494883418083e-03</internalNodes>
          <leafValues>
            6.3899934291839600e-02 -7.6220387220382690e-01</leafValues></_>
        <_>
          <internalNodes>
            0 -1 161 -1.2037447653710842e-02</internalNodes>
          <leafValues>
            -6.5942245721817017e-01 6.6124312579631805e-02</leafValues></_>
        <_>
          <internalNodes>
            0 -1 45 -3.2179816626012325e-03</internalNodes>
          <leafValues>
            3.5493561625480652e-01 -1.5994462370872498e-01</leafValues></_>
        <_>
          <internalNodes>
            0 -1 36 4.3091615661978722e-03</internalNodes>
          <leafValues>
            -1.5912896394729614e-01 3.6946913599967957e-01</leafValues></_>
        <_>
          <internalNodes>
            0 -1 33 -2.4692709557712078e-03</internalNodes>
          <leafValues>
            -5.3085476160049438e-01 9.8378747701644897e-02</leafValues></_>
        <_>
          <internalNodes>
            0 -1 172 -3.0351568013429642e-02</internalNodes>
          <leafValues>
            6.3636547327041626e-01 -9.0882077813148499e-02</leafValues></_>
        <_>
          <internalNodes>
            0 -1 201 4.5463234186172485e-02</internalNodes>
          <leafValues>
            -7.7247798442840576e-02 6.0451978445053101e-01</leafValues></_>
        <_>
          <internalNodes>
            0 -1 218 -8.6790267378091812e-03</internalNodes>
          <leafValues>
            4.2244786024093628e-01 -1.1644832789897919e-01</leafValues></_>
        <_>
          <internalNodes>
            0 -1 18 -5.4637361317873001e-03</internalNodes>
          <leafValues>
            3.8422477245330811e-01 -1.3499936461448669e-01</leafValues></_>
        <_>
          <internalNodes>
            0 -1 26 4.1931378655135632e-03</internalNodes>
          <leafValues>
            -2.4283395707607269e-01 2.4923042953014374e-01</leafValues></_>
        <_>
          <internalNodes>
            0 -1 25 2.6658855378627777e-02</internalNodes>
          <leafValues>
            1.0425226390361786e-01 -5.5622220039367676e-01</leafValues></_>
        <_>
          <internalNodes>
            0 -1 156 6.1147537780925632e-04</internalNodes>
          <leafValues>
            -2.3549161851406097e-01 2.1318760514259338e-01</leafValues></_>
        <_>
          <internalNodes>
            0 -1 164 3.3921055495738983e-02</internalNodes>
          <leafValues>
            6.1006490141153336e-02 -8.9295983314514160e-01</leafValues></_>
        <_>
          <internalNodes>
            0 -1 69 9.0824328362941742e-03</internalNodes>
          <leafValues>
            -9.9008433520793915e-02 5.4965418577194214e-01</leafValues></_>
        <_>
          <internalNodes>
            0 -1 147 3.0052198562771082e-03</internalNodes>
          <leafValues>
            -1.3045690953731537e-01 3.5108661651611328e-01</leafValues></_>
        <_>
          <internalNodes>
            0 -1 181 7.0006819441914558e-04</internalNodes>
          <leafValues>
            -1.8275752663612366e-01 2.7746695280075073e-01</leafValues></_></weakClassifiers></_>
    <!-- stage 4 -->
    <_>
      <maxWeakCount>31</maxWeakCount>
      <stageThreshold>-9.5933592319488525e-01</stageThreshold>
      <weakClassifiers>
        <_>
          <internalNodes>
            0 -1 151 1.2126405490562320e-03</internalNodes>
          <leafValues>
            -9.6670249477028847e-03 5.5071479082107544e-01</leafValues></_>
        <_>
          <internalNodes>
            0 -1 132 -2.2499669343233109e-02</internalNodes>
          <leafValues>
            7.1746456623077393e-01 -7.9320110380649567e-02</leafValues></_>
        <_>
          <internalNodes>
            0 -1 17 3.0801403336226940e-03</internalNodes>
          <leafValues>
            -2.2771582007408142e-01 2.7125301957130432e-01</leafValues></_>
        <_>
          <internalNodes>
            0 -1 179 2.4625647347420454e-04</internalNodes>
          <leafValues>
            1.6969804465770721e-01 -3.5881042480468750e-01</leafValues></_>
        <_>
          <internalNodes>
            0 -1 180 -4.2077898979187012e-04</internalNodes>
          <leafValues>
            -3.4098550677299500e-01 1.9635491073131561e-01</leafValues></_>
        <_>
          <internalNodes>
            0 -1 141 -6.5336078405380249e-03</internalNodes>
          <leafValues>
            -3.9628362655639648e-01 2.1781145036220551e-01</leafValues></_>
        <_>
          <internalNodes>
            0 -1 100 2.1133378613740206e-03</internalNodes>
          <leafValues>
            -2.4950425326824188e-01 2.1393822133541107e-01</leafValues></_>
        <_>
          <internalNodes>
            0 -1 99 -1.6616549342870712e-02</internalNodes>
          <leafValues>
            -8.2124280929565430e-01 3.8769770413637161e-02</leafValues></_>
        <_>
          <internalNodes>
            0 -1 171 4.1272584348917007e-03</internalNodes>
          <leafValues>
            -1.5753260254859924e-01 3.5655719041824341e-01</leafValues></_>
        <_>
          <internalNodes>
            0 -1 56 9.5278052613139153e-03</internalNodes>
          <leafValues>
            1.0135316848754883e-01 -7.0458000898361206e-01</leafValues></_>
        <_>
          <internalNodes>
            0 -1 56 1.1525179725140333e-03</internalNodes>
          <leafValues>
            -2.8557440638542175e-01 2.2441369295120239e-01</leafValues></_>
        <_>
          <internalNodes>
            0 -1 48 3.6672540009021759e-02</internalNodes>
          <leafValues>
            6.6693283617496490e-02 -8.1376349925994873e-01</leafValues></_>
        <_>
          <internalNodes>
            0 -1 9 -1.3224147260189056e-02</internalNodes>
          <leafValues>
            3.5235711932182312e-01 -1.5581943094730377e-01</leafValues></_>
        <_>
          <internalNodes>
            0 -1 167 2.5477490853518248e-03</internalNodes>
          <leafValues>
            -1.9575771689414978e-01 2.5112614035606384e-01</leafValues></_>
        <_>
          <internalNodes>
            0 -1 169 3.0914493836462498e-03</internalNodes>
          <leafValues>
            -1.7307968437671661e-01 2.8103420138359070e-01</leafValues></_>
        <_>
          <internalNodes>
            0 -1 142 3.8105670828372240e-03</internalNodes>
          <leafValues>
            -1.8100716173648834e-01 3.4326434135437012e-01</leafValues></_>
        <_>
          <internalNodes>
            0 -1 155 1.1288927868008614e-02</internalNodes>
          <leafValues>
            8.3511658012866974e-02 -6.2569248676300049e-01</leafValues></_>
        <_>
          <internalNodes>
            0 -1 199 -4.9190334975719452e-03</internalNodes>
          <leafValues>
            3.3587524294853210e-01 -1.4166435599327087e-01</leafValues></_>
        <_>
          <internalNodes>
            0 -1 38 2.5013968348503113e-02</internalNodes>
          <leafValues>
            8.1117950379848480e-02 -6.5456664562225342e-01</leafValues></_>
        <_>
          <internalNodes>
            0 -1 89 7.3856958188116550e-03</internalNodes>
          <leafValues>
            -1.4680093526840210e-01 3.6888590455055237e-01</leafValues></_>
        <_>
          <internalNodes>
            0 -1 32 5.1319086924195290e-03</internalNodes>
          <leafValues>
            -3.9073258638381958e-01 1.3505083322525024e-01</leafValues></_>
        <_>
          <internalNodes>
            0 -1 39 -2.1726600825786591e-03</internalNodes>
          <leafValues>
            2.3265406489372253e-01 -2.1197609603404999e-01</leafValues></_>
        <_>
          <internalNodes>
            0 -1 210 2.1274886094033718e-03</internalNodes>
          <leafValues>
            -2.0886431634426117e-01 2.3665638267993927e-01</leafValues></_>
        <_>
          <internalNodes>
            0 -1 93 8.4574725478887558e-03</internalNodes>
          <leafValues>
            8.2031510770320892e-02 -5.9655630588531494e-01</leafValues></_>
        <_>
          <internalNodes>
            0 -1 183 -7.4602692620828748e-04</internalNodes>
          <leafValues>
            3.2131528854370117e-01 -1.7509441077709198e-01</leafValues></_>
        <_>
          <internalNodes>
            0 -1 206 2.2313154768198729e-03</internalNodes>
          <leafValues>
            -1.8260362744331360e-01 2.7570337057113647e-01</leafValues></_>
        <_>
          <internalNodes>
            0 -1 11 1.5525853261351585e-02</internalNodes>
          <leafValues>
            -1.1120177060365677e-01 4.4833102822303772e-01</leafValues></_>
        <_>
          <internalNodes>
            0 -1 22 -5.5714156478643417e-03</internalNodes>
          <leafValues>
            3.5322168469429016e-01 -1.3807027041912079e-01</leafValues></_>
        <_>
          <internalNodes>
            0 -1 184 2.5468831881880760e-03</internalNodes>
          <leafValues>
            -2.2327642142772675e-01 2.1411369740962982e-01</leafValues></_>
        <_>
          <internalNodes>
            0 -1 102 -4.2026869952678680e-02</internalNodes>
          <leafValues>
            -5.9834855794906616e-01 7.7843062579631805e-02</leafValues></_>
        <_>
          <internalNodes>
            0 -1 110 6.2329871580004692e-03</internalNodes>
          <leafValues>
            -1.6780216991901398e-01 2.8866997361183167e-01</leafValues></_></weakClassifiers></_>
    <!-- stage 5 -->
    <_>
      <maxWeakCount>26</maxWeakCount>
      <stageThreshold>-7.5618702173233032e-01</stageThreshold>
      <weakClassifiers>
        <_>
          <internalNodes>
            0 -1 190 -7.7777251601219177e-02</internalNodes>
          <leafValues>
            7.0104289054870605e-01 1.2687052786350250e-01</leafValues></_>
        <_>
          <internalNodes>
            0 -1 112 4.3631886364892125e-04</internalNodes>
          <leafValues>
            -2.6550570130348206e-01 2.6027163863182068e-01</leafValues></_>
        <_>
          <internalNodes>
            0 -1 208 2.5625063572078943e-03</internalNodes>
          <leafValues>
            -2.0669499039649963e-01 2.9437971115112305e-01</leafValues></_>
        <_>
          <internalNodes>
            0 -1 207 -5.0078406929969788e-03</internalNodes>
          <leafValues>
            3.6703312397003174e-01 -2.2539831697940826e-01</leafValues></_>
        <_>
          <internalNodes>
            0 -1 229 -7.6392595656216145e-03</internalNodes>
          <leafValues>
            5.7621920108795166e-01 -1.1997973173856735e-01</leafValues></_>
        <_>
          <internalNodes>
            0 -1 148 1.6102302819490433e-02</internalNodes>
          <leafValues>
            9.5030501484870911e-02 -8.1615930795669556e-01</leafValues></_>
        <_>
          <internalNodes>
            0 -1 27 4.8101693391799927e-03</internalNodes>
          <leafValues>
            -2.6788434386253357e-01 2.0858183503150940e-01</leafValues></_>
        <_>
          <internalNodes>
            0 -1 55 7.8997053205966949e-03</internalNodes>
          <leafValues>
            9.4025418162345886e-02 -6.6309827566146851e-01</leafValues></_>
        <_>
          <internalNodes>
            0 -1 163 -2.8290543705224991e-02</internalNodes>
          <leafValues>
            -7.9648739099502563e-01 5.6637894362211227e-02</leafValues></_>
        <_>
          <internalNodes>
            0 -1 35 -7.9487878829240799e-03</internalNodes>
          <leafValues>
            4.2997029423713684e-01 -1.3275651633739471e-01</leafValues></_>
        <_>
          <internalNodes>
            0 -1 136 1.5673948219045997e-03</internalNodes>
          <leafValues>
            -2.4321869015693665e-01 2.2607514262199402e-01</leafValues></_>
        <_>
          <internalNodes>
            0 -1 192 -6.8756975233554840e-03</internalNodes>
          <leafValues>
            -5.0989460945129395e-01 1.1062332242727280e-01</leafValues></_>
        <_>
          <internalNodes>
            0 -1 44 -5.4396498017013073e-03</internalNodes>
          <leafValues>
            -7.7763360738754272e-01 6.0898125171661377e-02</leafValues></_>
        <_>
          <internalNodes>
            0 -1 90 -1.5694512985646725e-03</internalNodes>
          <leafValues>
            3.0999243259429932e-01 -1.5723745524883270e-01</leafValues></_>
        <_>
          <internalNodes>
            0 -1 23 1.4318644534796476e-03</internalNodes>
          <leafValues>
            -1.2530344724655151e-01 3.6020827293395996e-01</leafValues></_>
        <_>
          <internalNodes>
            0 -1 1 -7.6068736612796783e-02</internalNodes>
          <leafValues>
            3.7334504723548889e-01 -1.4962695538997650e-01</leafValues></_>
        <_>
          <internalNodes>
            0 -1 72 1.2852238491177559e-02</internalNodes>
          <leafValues>
            -1.1383861303329468e-01 4.6406635642051697e-01</leafValues></_>
        <_>
          <internalNodes>
            0 -1 185 1.7166009638458490e-03</internalNodes>
          <leafValues>
            1.1410978436470032e-01 -4.1826689243316650e-01</leafValues></_>
        <_>
          <internalNodes>
            0 -1 135 2.5195704074576497e-04</internalNodes>
          <leafValues>
            -2.7863913774490356e-01 1.9015553593635559e-01</leafValues></_>
        <_>
          <internalNodes>
            0 -1 189 5.6990258395671844e-02</internalNodes>
          <leafValues>
            4.8443689942359924e-02 -8.1958258152008057e-01</leafValues></_>
        <_>
          <internalNodes>
            0 -1 92 -9.1072238981723785e-02</internalNodes>
          <leafValues>
            -7.9588562250137329e-01 4.2971402406692505e-02</leafValues></_>
        <_>
          <internalNodes>
            0 -1 119 -6.8613491021096706e-04</internalNodes>
          <leafValues>
            2.2070573270320892e-01 -2.0133280754089355e-01</leafValues></_>
        <_>
          <internalNodes>
            0 -1 152 -8.5506150498986244e-03</internalNodes>
          <leafValues>
            -5.7963454723358154e-01 7.8633509576320648e-02</leafValues></_>
        <_>
          <internalNodes>
            0 -1 46 8.0123487859964371e-03</internalNodes>
          <leafValues>
            6.0236085206270218e-02 -6.0393732786178589e-01</leafValues></_>
        <_>
          <internalNodes>
            0 -1 66 5.1214606501162052e-03</internalNodes>
          <leafValues>
            4.7879025340080261e-02 -7.5353372097015381e-01</leafValues></_>
        <_>
          <internalNodes>
            0 -1 212 -5.7927607558667660e-03</internalNodes>
          <leafValues>
            3.0267077684402466e-01 -1.5014007687568665e-01</leafValues></_></weakClassifiers></_>
    <!-- stage 6 -->
    <_>
      <maxWeakCount>26</maxWeakCount>
      <stageThreshold>-7.6618826389312744e-01</stageThreshold>
      <weakClassifiers>
        <_>
          <internalNodes>
            0 -1 221 -2.2012129426002502e-02</internalNodes>
          <leafValues>
            6.8342244625091553e-01 1.0989761352539063e-01</leafValues></_>
        <_>
          <internalNodes>
            0 -1 83 2.1954737603664398e-03</internalNodes>
          <leafValues>
            -2.5857341289520264e-01 3.1657063961029053e-01</leafValues></_>
        <_>
          <internalNodes>
            0 -1 177 2.8957493486814201e-04</internalNodes>
          <leafValues>
            1.6186407208442688e-01 -3.6989855766296387e-01</leafValues></_>
        <_>
          <internalNodes>
            0 -1 137 1.1871838942170143e-03</internalNodes>
          <leafValues>
            -2.0835185050964355e-01 2.8036943078041077e-01</leafValues></_>
        <_>
          <internalNodes>
            0 -1 77 1.3131923973560333e-02</internalNodes>
          <leafValues>
            -2.8033640980720520e-01 1.9748188555240631e-01</leafValues></_>
        <_>
          <internalNodes>
            0 -1 6 5.7356681674718857e-02</internalNodes>
          <leafValues>
            -1.0137423872947693e-01 5.4572570323944092e-01</leafValues></_>
        <_>
          <internalNodes>
            0 -1 170 1.6883315984159708e-03</internalNodes>
          <leafValues>
            -2.4946084618568420e-01 1.9630184769630432e-01</leafValues></_>
        <_>
          <internalNodes>
            0 -1 223 9.0588023886084557e-04</internalNodes>
          <leafValues>
            -2.1276874840259552e-01 2.6603469252586365e-01</leafValues></_>
        <_>
          <internalNodes>
            0 -1 123 8.1868562847375870e-03</internalNodes>
          <leafValues>
            7.0166870951652527e-02 -8.4499675035476685e-01</leafValues></_>
        <_>
          <internalNodes>
            0 -1 29 6.5852114930748940e-03</internalNodes>
          <leafValues>
            8.3086065948009491e-02 -5.4414594173431396e-01</leafValues></_>
        <_>
          <internalNodes>
            0 -1 198 7.8118965029716492e-04</internalNodes>
          <leafValues>
            -1.7074133455753326e-01 2.7736884355545044e-01</leafValues></_>
        <_>
          <internalNodes>
            0 -1 197 -3.7855627015233040e-03</internalNodes>
          <leafValues>
            -6.8273341655731201e-01 6.9156780838966370e-02</leafValues></_>
        <_>
          <internalNodes>
            0 -1 19 1.2409968301653862e-02</internalNodes>
          <leafValues>
            -1.0149263590574265e-01 4.9053478240966797e-01</leafValues></_>
        <_>
          <internalNodes>
            0 -1 21 -6.8935225717723370e-03</internalNodes>
          <leafValues>
            3.3144077658653259e-01 -1.5093161165714264e-01</leafValues></_>
        <_>
          <internalNodes>
            0 -1 196 -2.9654854442924261e-03</internalNodes>
          <leafValues>
            2.4584279954433441e-01 -2.1332894265651703e-01</leafValues></_>
        <_>
          <internalNodes>
            0 -1 28 9.1821765527129173e-03</internalNodes>
          <leafValues>
            -2.0100070536136627e-01 2.4618436396121979e-01</leafValues></_>
        <_>
          <internalNodes>
            0 -1 56 1.2812885455787182e-02</internalNodes>
          <leafValues>
            5.8776829391717911e-02 -9.0173804759979248e-01</leafValues></_>
        <_>
          <internalNodes>
            0 -1 231 -5.7350066490471363e-03</internalNodes>
          <leafValues>
            3.4114319086074829e-01 -1.5178984403610229e-01</leafValues></_>
        <_>
          <internalNodes>
            0 -1 230 1.4686655486002564e-03</internalNodes>
          <leafValues>
            -1.8372142314910889e-01 3.1742879748344421e-01</leafValues></_>
        <_>
          <internalNodes>
            0 -1 144 -3.2605797052383423e-02</internalNodes>
          <leafValues>
            -7.0596575736999512e-01 7.7027015388011932e-02</leafValues></_>
        <_>
          <internalNodes>
            0 -1 182 2.5872589321807027e-04</internalNodes>
          <leafValues>
            -2.1936376392841339e-01 2.2761525213718414e-01</leafValues></_>
        <_>
          <internalNodes>
            0 -1 114 4.1873962618410587e-04</internalNodes>
          <leafValues>
            -2.5209876894950867e-01 2.0623263716697693e-01</leafValues></_>
        <_>
          <internalNodes>
            0 -1 173 1.8731238378677517e-04</internalNodes>
          <leafValues>
            1.7725066840648651e-01 -3.0874612927436829e-01</leafValues></_>
        <_>
          <internalNodes>
            0 -1 146 1.6028835671022534e-03</internalNodes>
          <leafValues>
            -2.5612896680831909e-01 2.3568145930767059e-01</leafValues></_>
        <_>
          <internalNodes>
            0 -1 134 -1.2557606678456068e-03</internalNodes>
          <leafValues>
            -2.9623582959175110e-01 1.5102908015251160e-01</leafValues></_>
        <_>
          <internalNodes>
            0 -1 175 -2.0590721396729350e-04</internalNodes>
          <leafValues>
            -2.9556471109390259e-01 1.7251935601234436e-01</leafValues></_></weakClassifiers></_>
    <!-- stage 7 -->
    <_>
      <maxWeakCount>34</maxWeakCount>
      <stageThreshold>-8.0267810821533203e-01</stageThreshold>
      <weakClassifiers>
        <_>
          <internalNodes>
            0 -1 96 -4.9307662993669510e-03</internalNodes>
          <leafValues>
            -3.0128204822540283e-01 4.2816090583801270e-01</leafValues></_>
        <_>
          <internalNodes>
            0 -1 103 -4.1367895901203156e-02</internalNodes>
          <leafValues>
            5.8256542682647705e-01 -9.5937587320804596e-02</leafValues></_>
        <_>
          <internalNodes>
            0 -1 8 1.4827063307166100e-02</internalNodes>
          <leafValues>
            -1.1786636710166931e-01 4.4198867678642273e-01</leafValues></_>
        <_>
          <internalNodes>
            0 -1 105 9.7256079316139221e-02</internalNodes>
          <leafValues>
            5.6743070483207703e-02 -7.0179241895675659e-01</leafValues></_>
        <_>
          <internalNodes>
            0 -1 145 -1.5450822189450264e-02</internalNodes>
          <leafValues>
            3.9238780736923218e-01 -1.5028573572635651e-01</leafValues></_>
        <_>
          <internalNodes>
            0 -1 168 -2.1096955984830856e-02</internalNodes>
          <leafValues>
            -6.9632548093795776e-01 5.8871645480394363e-02</leafValues></_>
        <_>
          <internalNodes>
            0 -1 178 -5.9071322903037071e-04</internalNodes>
          <leafValues>
            -3.1080994009971619e-01 1.5427467226982117e-01</leafValues></_>
        <_>
          <internalNodes>
            0 -1 177 1.7482524272054434e-03</internalNodes>
          <leafValues>
            7.2543837130069733e-02 -5.7647979259490967e-01</leafValues></_>
        <_>
          <internalNodes>
            0 -1 71 -6.1596962623298168e-03</internalNodes>
          <leafValues>
            3.1039571762084961e-01 -1.6261593997478485e-01</leafValues></_>
        <_>
          <internalNodes>
            0 -1 110 1.5327778644859791e-02</internalNodes>
          <leafValues>
            -1.0402573645114899e-01 4.4001364707946777e-01</leafValues></_>
        <_>
          <internalNodes>
            0 -1 67 5.1198381697759032e-04</internalNodes>
          <leafValues>
            -2.6604583859443665e-01 1.8018810451030731e-01</leafValues></_>
        <_>
          <internalNodes>
            0 -1 111 -2.8940077871084213e-02</internalNodes>
          <leafValues>
            4.9091592431068420e-01 -1.0512510687112808e-01</leafValues></_>
        <_>
          <internalNodes>
            0 -1 139 2.1198904141783714e-03</internalNodes>
          <leafValues>
            -2.1480405330657959e-01 2.6161348819732666e-01</leafValues></_>
        <_>
          <internalNodes>
            0 -1 159 -4.5570805668830872e-02</internalNodes>
          <leafValues>
            -4.3783318996429443e-01 1.2303023040294647e-01</leafValues></_>
        <_>
          <internalNodes>
            0 -1 209 7.8333925921469927e-04</internalNodes>
          <leafValues>
            -2.2144578397274017e-01 2.3066088557243347e-01</leafValues></_>
        <_>
          <internalNodes>
            0 -1 75 1.2030762154608965e-03</internalNodes>
          <leafValues>
            -2.7086266875267029e-01 1.5637405216693878e-01</leafValues></_>
        <_>
          <internalNodes>
            0 -1 150 5.5590439587831497e-03</internalNodes>
          <leafValues>
            -1.3941715657711029e-01 3.0551892518997192e-01</leafValues></_>
        <_>
          <internalNodes>
            0 -1 67 1.3213474303483963e-02</internalNodes>
          <leafValues>
            7.1845568716526031e-02 -6.5214675664901733e-01</leafValues></_>
        <_>
          <internalNodes>
            0 -1 37 -9.0133640915155411e-03</internalNodes>
          <leafValues>
            -7.9017466306686401e-01 4.7658741474151611e-02</leafValues></_>
        <_>
          <internalNodes>
            0 -1 10 2.1908607333898544e-02</internalNodes>
          <leafValues>
            -1.1205264925956726e-01 3.7014460563659668e-01</leafValues></_>
        <_>
          <internalNodes>
            0 -1 52 8.8384430855512619e-03</internalNodes>
          <leafValues>
            1.0441758483648300e-01 -4.4151571393013000e-01</leafValues></_>
        <_>
          <internalNodes>
            0 -1 121 -4.5884884893894196e-03</internalNodes>
          <leafValues>
            -6.1881136894226074e-01 5.7621277868747711e-02</leafValues></_>
        <_>
          <internalNodes>
            0 -1 117 5.7108711916953325e-04</internalNodes>
          <leafValues>
            -1.6043235361576080e-01 2.3491729795932770e-01</leafValues></_>
        <_>
          <internalNodes>
            0 -1 91 -1.1676305904984474e-02</internalNodes>
          <leafValues>
            3.1926962733268738e-01 -1.1946530640125275e-01</leafValues></_>
        <_>
          <internalNodes>
            0 -1 225 -7.3609477840363979e-03</internalNodes>
          <leafValues>
            3.1513321399688721e-01 -1.3433326780796051e-01</leafValues></_>
        <_>
          <internalNodes>
            0 -1 200 3.9497693069279194e-04</internalNodes>
          <leafValues>
            -1.7317041754722595e-01 2.2063115239143372e-01</leafValues></_>
        <_>
          <internalNodes>
            0 -1 228 2.3158839903771877e-03</internalNodes>
          <leafValues>
            -1.6451843082904816e-01 2.4588517844676971e-01</leafValues></_>
        <_>
          <internalNodes>
            0 -1 130 -5.4497681558132172e-02</internalNodes>
          <leafValues>
            -5.9038537740707397e-01 7.5309664011001587e-02</leafValues></_>
        <_>
          <internalNodes>
            0 -1 215 -1.7344526946544647e-02</internalNodes>
          <leafValues>
            4.4777715206146240e-01 -1.1705248802900314e-01</leafValues></_>
        <_>
          <internalNodes>
            0 -1 153 1.7666552215814590e-02</internalNodes>
          <leafValues>
            5.1808059215545654e-02 -8.4786373376846313e-01</leafValues></_>
        <_>
          <internalNodes>
            0 -1 163 -2.4118382483720779e-02</internalNodes>
          <leafValues>
            -5.8508664369583130e-01 5.4504789412021637e-02</leafValues></_>
        <_>
          <internalNodes>
            0 -1 204 1.9499640911817551e-03</internalNodes>
          <leafValues>
            -1.6789834201335907e-01 2.4853961169719696e-01</leafValues></_>
        <_>
          <internalNodes>
            0 -1 127 1.0709229856729507e-02</internalNodes>
          <leafValues>
            8.0153360962867737e-02 -5.0923335552215576e-01</leafValues></_>
        <_>
          <internalNodes>
            0 -1 236 1.5568874077871442e-03</internalNodes>
          <leafValues>
            -1.8045152723789215e-01 2.2616578638553619e-01</leafValues></_></weakClassifiers></_>
    <!-- stage 8 -->
    <_>
      <maxWeakCount>38</maxWeakCount>
      <stageThreshold>-7.8284603357315063e-01</stageThreshold>
      <weakClassifiers>
        <_>
          <internalNodes>
            0 -1 79 3.1490691006183624e-02</internalNodes>
          <leafValues>
            1.2380952388048172e-01 6.6451615095138550e-01</leafValues></_>
        <_>
          <internalNodes>
            0 -1 107 -2.9917553067207336e-02</internalNodes>
          <leafValues>
            5.8813428878784180e-01 -9.1908723115921021e-02</leafValues></_>
        <_>
          <internalNodes>
            0 -1 137 -2.0587151870131493e-02</internalNodes>
          <leafValues>
            7.2322863340377808e-01 -9.6119776368141174e-02</leafValues></_>
        <_>
          <internalNodes>
            0 -1 109 -6.1643902212381363e-02</internalNodes>
          <leafValues>
            7.5489628314971924e-01 -4.3189130723476410e-02</leafValues></_>
        <_>
          <internalNodes>
            0 -1 122 -2.5186792481690645e-03</internalNodes>
          <leafValues>
            -4.9492943286895752e-01 7.6898500323295593e-02</leafValues></_>
        <_>
          <internalNodes>
            0 -1 42 4.5000370591878891e-02</internalNodes>
          <leafValues>
            5.4445866495370865e-02 -7.5741893053054810e-01</leafValues></_>
        <_>
          <internalNodes>
            0 -1 63 -6.0896673239767551e-03</internalNodes>
          <leafValues>
            3.9403274655342102e-01 -1.2729504704475403e-01</leafValues></_>
        <_>
          <internalNodes>
            0 -1 62 1.8840894335880876e-03</internalNodes>
          <leafValues>
            7.6024577021598816e-02 -6.0341453552246094e-01</leafValues></_>
        <_>
          <internalNodes>
            0 -1 41 -1.2543248012661934e-02</internalNodes>
          <leafValues>
            -7.0530807971954346e-01 3.9754211902618408e-02</leafValues></_>
        <_>
          <internalNodes>
            0 -1 20 -1.8706491217017174e-02</internalNodes>
          <leafValues>
            5.3367948532104492e-01 -7.9143501818180084e-02</leafValues></_>
        <_>
          <internalNodes>
            0 -1 143 9.1097094118595123e-03</internalNodes>
          <leafValues>
            -9.3792714178562164e-02 4.1067564487457275e-01</leafValues></_>
        <_>
          <internalNodes>
            0 -1 186 1.2705079279839993e-02</internalNodes>
          <leafValues>
            4.2763128876686096e-02 -8.6467808485031128e-01</leafValues></_>
        <_>
          <internalNodes>
            0 -1 179 2.2201047977432609e-04</internalNodes>
          <leafValues>
            1.2720085680484772e-01 -2.8654944896697998e-01</leafValues></_>
        <_>
          <internalNodes>
            0 -1 179 -6.5022101625800133e-04</internalNodes>
          <leafValues>
            -3.2322317361831665e-01 1.2976482510566711e-01</leafValues></_>
        <_>
          <internalNodes>
            0 -1 97 3.7461341707967222e-04</internalNodes>
          <leafValues>
            -1.9714529812335968e-01 2.0183816552162170e-01</leafValues></_>
        <_>
          <internalNodes>
            0 -1 118 1.1994425440207124e-03</internalNodes>
          <leafValues>
            -1.4769566059112549e-01 2.8488546609878540e-01</leafValues></_>
        <_>
          <internalNodes>
            0 -1 116 -3.2554075587540865e-03</internalNodes>
          <leafValues>
            2.5861161947250366e-01 -1.4519795775413513e-01</leafValues></_>
        <_>
          <internalNodes>
            0 -1 213 -1.3090737629681826e-03</internalNodes>
          <leafValues>
            2.4996776878833771e-01 -1.6675208508968353e-01</leafValues></_>
        <_>
          <internalNodes>
            0 -1 106 -1.2126062065362930e-03</internalNodes>
          <leafValues>
            -4.7597429156303406e-01 8.5644029080867767e-02</leafValues></_>
        <_>
          <internalNodes>
            0 -1 78 3.1535878777503967e-02</internalNodes>
          <leafValues>
            5.5851079523563385e-02 -6.4363884925842285e-01</leafValues></_>
        <_>
          <internalNodes>
            0 -1 50 6.6819051280617714e-03</internalNodes>
          <leafValues>
            -1.2309320271015167e-01 3.2193860411643982e-01</leafValues></_>
        <_>
          <internalNodes>
            0 -1 219 -1.0031012818217278e-02</internalNodes>
          <leafValues>
            3.8616886734962463e-01 -1.1093792319297791e-01</leafValues></_>
        <_>
          <internalNodes>
            0 -1 2 -1.1083715595304966e-02</internalNodes>
          <leafValues>
            3.8603919744491577e-01 -1.0352510213851929e-01</leafValues></_>
        <_>
          <internalNodes>
            0 -1 16 8.1118755042552948e-03</internalNodes>
          <leafValues>
            -1.3689620792865753e-01 3.3985853195190430e-01</leafValues></_>
        <_>
          <internalNodes>
            0 -1 187 -8.0599309876561165e-04</internalNodes>
          <leafValues>
            1.8219587206840515e-01 -2.2537265717983246e-01</leafValues></_>
        <_>
          <internalNodes>
            0 -1 0 -5.3219094872474670e-02</internalNodes>
          <leafValues>
            6.0757291316986084e-01 -7.1515448391437531e-02</leafValues></_>
        <_>
          <internalNodes>
            0 -1 154 9.1008506715297699e-03</internalNodes>
          <leafValues>
            9.5946140587329865e-02 -4.4572842121124268e-01</leafValues></_>
        <_>
          <internalNodes>
            0 -1 59 -2.0590194617398083e-04</internalNodes>
          <leafValues>
            1.7350117862224579e-01 -2.1707059442996979e-01</leafValues></_>
        <_>
          <internalNodes>
            0 -1 30 4.7413730062544346e-03</internalNodes>
          <leafValues>
            8.1623457372188568e-02 -4.5699152350425720e-01</leafValues></_>
        <_>
          <internalNodes>
            0 -1 3 1.1827689595520496e-02</internalNodes>
          <leafValues>
            -7.8303612768650055e-02 5.3180944919586182e-01</leafValues></_>
        <_>
          <internalNodes>
            0 -1 238 1.2201105244457722e-02</internalNodes>
          <leafValues>
            -9.6134059131145477e-02 3.5620817542076111e-01</leafValues></_>
        <_>
          <internalNodes>
            0 -1 34 6.0300387442111969e-02</internalNodes>
          <leafValues>
            7.0149436593055725e-02 -5.4508155584335327e-01</leafValues></_>
        <_>
          <internalNodes>
            0 -1 7 -2.5931134819984436e-02</internalNodes>
          <leafValues>
            3.2951512932777405e-01 -1.1790615320205688e-01</leafValues></_>
        <_>
          <internalNodes>
            0 -1 191 1.1884594568982720e-03</internalNodes>
          <leafValues>
            -1.5742251276969910e-01 2.4976156651973724e-01</leafValues></_>
        <_>
          <internalNodes>
            0 -1 203 1.5729518781881779e-04</internalNodes>
          <leafValues>
            -2.0491872727870941e-01 1.8669413030147552e-01</leafValues></_>
        <_>
          <internalNodes>
            0 -1 5 2.8575856238603592e-02</internalNodes>
          <leafValues>
            -1.1749823391437531e-01 3.3220428228378296e-01</leafValues></_>
        <_>
          <internalNodes>
            0 -1 54 -1.0658144950866699e-01</internalNodes>
          <leafValues>
            -7.5354927778244019e-01 5.3827341645956039e-02</leafValues></_>
        <_>
          <internalNodes>
            0 -1 174 -9.2357237008400261e-05</internalNodes>
          <leafValues>
            1.7552702128887177e-01 -2.2679381072521210e-01</leafValues></_></weakClassifiers></_>
    <!-- stage 9 -->
    <_>
      <maxWeakCount>37</maxWeakCount>
      <stageThreshold>-8.8673889636993408e-01</stageThreshold>
      <weakClassifiers>
        <_>
          <internalNodes>
            0 -1 193 -4.4699564576148987e-02</internalNodes>
          <leafValues>
            6.1913877725601196e-01 1.1291512846946716e-01</leafValues></_>
        <_>
          <internalNodes>
            0 -1 176 1.5228909905999899e-03</internalNodes>
          <leafValues>
            -1.7793278396129608e-01 3.7378504872322083e-01</leafValues></_>
        <_>
          <internalNodes>
            0 -1 88 1.9066015956923366e-03</internalNodes>
          <leafValues>
            -2.1234399080276489e-01 2.4873335659503937e-01</leafValues></_>
        <_>
          <internalNodes>
            0 -1 149 1.3253871351480484e-02</internalNodes>
          <leafValues>
            7.1966357529163361e-02 -6.5450036525726318e-01</leafValues></_>
        <_>
          <internalNodes>
            0 -1 160 7.9761100932955742e-03</internalNodes>
          <leafValues>
            -4.1258316487073898e-03 -8.4569656848907471e-01</leafValues></_>
        <_>
          <internalNodes>
            0 -1 227 -2.0876694470643997e-02</internalNodes>
          <leafValues>
            -4.0399712324142456e-01 9.4712518155574799e-02</leafValues></_>
        <_>
          <internalNodes>
            0 -1 100 2.1364032290875912e-03</internalNodes>
          <leafValues>
            -2.2491870820522308e-01 1.8976370990276337e-01</leafValues></_>
        <_>
          <internalNodes>
            0 -1 195 2.3296349681913853e-03</internalNodes>
          <leafValues>
            -2.8575876355171204e-01 1.5141534805297852e-01</leafValues></_>
        <_>
          <internalNodes>
            0 -1 197 1.7299028695560992e-04</internalNodes>
          <leafValues>
            1.4952121675014496e-01 -2.9371458292007446e-01</leafValues></_>
        <_>
          <internalNodes>
            0 -1 202 -1.4144337736070156e-02</internalNodes>
          <leafValues>
            3.2213234901428223e-01 -1.4200191199779510e-01</leafValues></_>
        <_>
          <internalNodes>
            0 -1 31 6.2230764888226986e-03</internalNodes>
          <leafValues>
            9.0471677482128143e-02 -5.9764236211776733e-01</leafValues></_>
        <_>
          <internalNodes>
            0 -1 232 4.6320590190589428e-03</internalNodes>
          <leafValues>
            6.3445463776588440e-02 -5.8758169412612915e-01</leafValues></_>
        <_>
          <internalNodes>
            0 -1 140 3.5195015370845795e-03</internalNodes>
          <leafValues>
            -1.4493086934089661e-01 3.3036485314369202e-01</leafValues></_>
        <_>
          <internalNodes>
            0 -1 104 -3.8558818399906158e-02</internalNodes>
          <leafValues>
            -4.1363665461540222e-01 1.3181595504283905e-01</leafValues></_>
        <_>
          <internalNodes>
            0 -1 53 1.8975519342347980e-03</internalNodes>
          <leafValues>
            -2.1872314810752869e-01 2.2516410052776337e-01</leafValues></_>
        <_>
          <internalNodes>
            0 -1 47 6.8263769149780273e-02</internalNodes>
          <leafValues>
            6.3512794673442841e-02 -6.9527655839920044e-01</leafValues></_>
        <_>
          <internalNodes>
            0 -1 24 -2.4492428638041019e-03</internalNodes>
          <leafValues>
            2.8245341777801514e-01 -1.4951810240745544e-01</leafValues></_>
        <_>
          <internalNodes>
            0 -1 226 1.0146575048565865e-02</internalNodes>
          <leafValues>
            6.2993802130222321e-02 -6.8646800518035889e-01</leafValues></_>
        <_>
          <internalNodes>
            0 -1 217 -9.4984937459230423e-03</internalNodes>
          <leafValues>
            3.9955377578735352e-01 -1.0935564339160919e-01</leafValues></_>
        <_>
          <internalNodes>
            0 -1 113 -2.1562073379755020e-02</internalNodes>
          <leafValues>
            -6.7184275388717651e-01 6.2396220862865448e-02</leafValues></_>
        <_>
          <internalNodes>
            0 -1 40 -1.1944303289055824e-02</internalNodes>
          <leafValues>
            3.3520457148551941e-01 -1.2695947289466858e-01</leafValues></_>
        <_>
          <internalNodes>
            0 -1 58 6.4599695615470409e-03</internalNodes>
          <leafValues>
            6.0527008026838303e-02 -7.9270607233047485e-01</leafValues></_>
        <_>
          <internalNodes>
            0 -1 166 -1.4459257945418358e-02</internalNodes>
          <leafValues>
            -5.3646755218505859e-01 6.2483970075845718e-02</leafValues></_>
        <_>
          <internalNodes>
            0 -1 214 1.5645655803382397e-03</internalNodes>
          <leafValues>
            -1.3025406002998352e-01 2.9939642548561096e-01</leafValues></_>
        <_>
          <internalNodes>
            0 -1 95 2.8788265772163868e-03</internalNodes>
          <leafValues>
            -2.2966365516185760e-01 1.6519884765148163e-01</leafValues></_>
        <_>
          <internalNodes>
            0 -1 85 1.8931756494566798e-04</internalNodes>
          <leafValues>
            1.4795425534248352e-01 -2.7783939242362976e-01</leafValues></_>
        <_>
          <internalNodes>
            0 -1 86 -3.5355999134480953e-03</internalNodes>
          <leafValues>
            -4.5745500922203064e-01 8.4834352135658264e-02</leafValues></_>
        <_>
          <internalNodes>
            0 -1 226 -6.9330567494034767e-03</internalNodes>
          <leafValues>
            -5.6710654497146606e-01 6.5848395228385925e-02</leafValues></_>
        <_>
          <internalNodes>
            0 -1 234 2.1330616436898708e-03</internalNodes>
          <leafValues>
            -1.2721399962902069e-01 3.5342061519622803e-01</leafValues></_>
        <_>
          <internalNodes>
            0 -1 235 -2.4783285334706306e-03</internalNodes>
          <leafValues>
            2.3337915539741516e-01 -1.6031548380851746e-01</leafValues></_>
        <_>
          <internalNodes>
            0 -1 237 4.1415199637413025e-02</internalNodes>
          <leafValues>
            -1.1308053135871887e-01 3.5801115632057190e-01</leafValues></_>
        <_>
          <internalNodes>
            0 -1 14 1.2839116156101227e-02</internalNodes>
          <leafValues>
            -9.0540476143360138e-02 3.9316073060035706e-01</leafValues></_>
        <_>
          <internalNodes>
            0 -1 13 -1.0211303830146790e-02</internalNodes>
          <leafValues>
            2.6178726553916931e-01 -1.6225388646125793e-01</leafValues></_>
        <_>
          <internalNodes>
            0 -1 128 1.9230084493756294e-02</internalNodes>
          <leafValues>
            5.3155865520238876e-02 -7.4353927373886108e-01</leafValues></_>
        <_>
          <internalNodes>
            0 -1 136 2.2136648185551167e-03</internalNodes>
          <leafValues>
            -2.1376578509807587e-01 1.8486127257347107e-01</leafValues></_>
        <_>
          <internalNodes>
            0 -1 56 1.6806614585220814e-03</internalNodes>
          <leafValues>
            -2.3444996774196625e-01 2.3773330450057983e-01</leafValues></_>
        <_>
          <internalNodes>
            0 -1 4 -1.8925607204437256e-01</internalNodes>
          <leafValues>
            6.9061750173568726e-01 -6.8280011415481567e-02</leafValues></_></weakClassifiers></_></stages>
  <features>
    <_>
      <rects>
        <_>
          0 0 1 18 -1.</_>
        <_>
          0 9 1 9 2.</_></rects>
      <tilted>0</tilted></_>
    <_>
      <rects>
        <_>
          0 0 8 13 -1.</_>
        <_>
          4 0 4 13 2.</_></rects>
      <tilted>0</tilted></_>
    <_>
      <rects>
        <_>
          0 0 16 2 -1.</_>
        <_>
          0 0 8 1 2.</_>
        <_>
          8 1 8 1 2.</_></rects>
      <tilted>0</tilted></_>
    <_>
      <rects>
        <_>
          0 1 2 4 -1.</_>
        <_>
          0 3 2 2 2.</_></rects>
      <tilted>0</tilted></_>
    <_>
      <rects>
        <_>
          0 2 6 14 -1.</_>
        <_>
          0 9 6 7 2.</_></rects>
      <tilted>0</tilted></_>
    <_>
      <rects>
        <_>
          0 2 14 4 -1.</_>
        <_>
          0 2 7 2 2.</_>
        <_>
          7 4 7 2 2.</_></rects>
      <tilted>0</tilted></_>
    <_>
      <rects>
        <_>
          0 3 6 8 -1.</_>
        <_>
          3 3 3 8 2.</_></rects>
      <tilted>0</tilted></_>
    <_>
      <rects>
        <_>
          0 8 12 4 -1.</_>
        <_>
          0 8 6 2 2.</_>
        <_>
          6 10 6 2 2.</_></rects>
      <tilted>0</tilted></_>
    <_>
      <rects>
        <_>
          1 0 13 2 -1.</_>
        <_>
          1 1 13 1 2.</_></rects>
      <tilted>0</tilted></_>
    <_>
      <rects>
        <_>
          2 0 8 2 -1.</_>
        <_>
          6 0 4 2 2.</_></rects>
      <tilted>0</tilted></_>
    <_>
      <rects>
        <_>
          2 5 4 5 -1.</_>
        <_>
          4 5 2 5 2.</_></rects>
      <tilted>0</tilted></_>
    <_>
      <rects>
        <_>
          2 6 4 4 -1.</_>
        <_>
          4 6 2 4 2.</_></rects>
      <tilted>0</tilted></_>
    <_>
      <rects>
        <_>
          2 6 4 5 -1.</_>
        <_>
          4 6 2 5 2.</_></rects>
      <tilted>0</tilted></_>
    <_>
      <rects>
        <_>
          2 8 4 3 -1.</_>
        <_>
          4 8 2 3 2.</_></rects>
      <tilted>0</tilted></_>
    <_>
      <rects>
        <_>
          2 9 4 3 -1.</_>
        <_>
          4 9 2 3 2.</_></rects>
      <tilted>0</tilted></_>
    <_>
      <rects>
        <_>
          2 16 6 2 -1.</_>
        <_>
          2 16 3 1 2.</_>
        <_>
          5 17 3 1 2.</_></rects>
      <tilted>0</tilted></_>
    <_>
      <rects>
        <_>
          3 0 12 2 -1.</_>
        <_>
          3 0 6 1 2.</_>
        <_>
          9 1 6 1 2.</_></rects>
      <tilted>0</tilted></_>
    <_>
      <rects>
        <_>
          3 4 4 1 -1.</_>
        <_>
          5 4 2 1 2.</_></rects>
      <tilted>0</tilted></_>
    <_>
      <rects>
        <_>
          3 5 2 6 -1.</_>
        <_>
          3 5 1 3 2.</_>
        <_>
          4 8 1 3 2.</_></rects>
      <tilted>0</tilted></_>
    <_>
      <rects>
        <_>
          3 5 8 2 -1.</_>
        <_>
          3 5 4 1 2.</_>
        <_>
          7 6 4 1 2.</_></rects>
      <tilted>0</tilted></_>
    <_>
      <rects>
        <_>
          3 6 1 8 -1.</_>
        <_>
          3 10 1 4 2.</_></rects>
      <tilted>0</tilted></_>
    <_>
      <rects>
        <_>
          3 7 2 5 -1.</_>
        <_>
          4 7 1 5 2.</_></rects>
      <tilted>0</tilted></_>
    <_>
      <rects>
        <_>
          3 8 2 3 -1.</_>
        <_>
          4 8 1 3 2.</_></rects>
      <tilted>0</tilted></_>
    <_>
      <rects>
        <_>
          3 9 2 1 -1.</_>
        <_>
          4 9 1 1 2.</_></rects>
      <tilted>0</tilted></_>
    <_>
      <rects>
        <_>
          3 14 2 2 -1.</_>
        <_>
          4 14 1 2 2.</_></rects>
      <tilted>0</tilted></_>
    <_>
      <rects>
        <_>
          4 1 6 5 -1.</_>
        <_>
          6 1 2 5 3.</_></rects>
      <tilted>0</tilted></_>
    <_>
      <rects>
        <_>
          4 3 4 2 -1.</_>
        <_>
          6 3 2 2 2.</_></rects>
      <tilted>0</tilted></_>
    <_>
      <rects>
        <_>
          4 3 4 3 -1.</_>
        <_>
          6 3 2 3 2.</_></rects>
      <tilted>0</tilted></_>
    <_>
      <rects>
        <_>
          4 3 4 4 -1.</_>
        <_>
          6 3 2 4 2.</_></rects>
      <tilted>0</tilted></_>
    <_>
      <rects>
        <_>
          4 4 2 3 -1.</_>
        <_>
          4 5 2 1 3.</_></rects>
      <tilted>0</tilted></_>
    <_>
      <rects>
        <_>
          4 5 2 3 -1.</_>
        <_>
          4 6 2 1 3.</_></rects>
      <tilted>0</tilted></_>
    <_>
      <rects>
        <_>
          4 6 2 3 -1.</_>
        <_>
          4 7 2 1 3.</_></rects>
      <tilted>0</tilted></_>
    <_>
      <rects>
        <_>
          4 6 6 4 -1.</_>
        <_>
          7 6 3 4 2.</_></rects>
      <tilted>0</tilted></_>
    <_>
      <rects>
        <_>
          4 6 8 4 -1.</_>
        <_>
          8 6 4 4 2.</_></rects>
      <tilted>0</tilted></_>
    <_>
      <rects>
        <_>
          4 6 10 3 -1.</_>
        <_>
          9 6 5 3 2.</_></rects>
      <tilted>0</tilted></_>
    <_>
      <rects>
        <_>
          4 7 3 2 -1.</_>
        <_>
          5 7 1 2 3.</_></rects>
      <tilted>0</tilted></_>
    <_>
      <rects>
        <_>
          4 7 2 6 -1.</_>
        <_>
          4 7 1 3 2.</_>
        <_>
          5 10 1 3 2.</_></rects>
      <tilted>0</tilted></_>
    <_>
      <rects>
        <_>
          4 7 2 3 -1.</_>
        <_>
          4 8 2 1 3.</_></rects>
      <tilted>0</tilted></_>
    <_>
      <rects>
        <_>
          4 7 3 6 -1.</_>
        <_>
          4 10 3 3 2.</_></rects>
      <tilted>0</tilted></_>
    <_>
      <rects>
        <_>
          4 8 2 3 -1.</_>
        <_>
          5 8 1 3 2.</_></rects>
      <tilted>0</tilted></_>
    <_>
      <rects>
        <_>
          4 8 3 3 -1.</_>
        <_>
          5 8 1 3 3.</_></rects>
      <tilted>0</tilted></_>
    <_>
      <rects>
        <_>
          4 8 4 2 -1.</_>
        <_>
          6 8 2 2 2.</_></rects>
      <tilted>0</tilted></_>
    <_>
      <rects>
        <_>
          4 8 6 3 -1.</_>
        <_>
          7 8 3 3 2.</_></rects>
      <tilted>0</tilted></_>
    <_>
      <rects>
        <_>
          4 9 2 1 -1.</_>
        <_>
          5 9 1 1 2.</_></rects>
      <tilted>0</tilted></_>
    <_>
      <rects>
        <_>
          4 9 2 2 -1.</_>
        <_>
          4 10 2 1 2.</_></rects>
      <tilted>0</tilted></_>
    <_>
      <rects>
        <_>
          4 10 2 2 -1.</_>
        <_>
          5 10 1 2 2.</_></rects>
      <tilted>0</tilted></_>
    <_>
      <rects>
        <_>
          4 10 4 2 -1.</_>
        <_>
          4 11 4 1 2.</_></rects>
      <tilted>0</tilted></_>
    <_>
      <rects>
        <_>
          5 1 4 11 -1.</_>
        <_>
          7 1 2 11 2.</_></rects>
      <tilted>0</tilted></_>
    <_>
      <rects>
        <_>
          5 1 5 4 -1.</_>
        <_>
          5 3 5 2 2.</_></rects>
      <tilted>0</tilted></_>
    <_>
      <rects>
        <_>
          5 1 9 12 -1.</_>
        <_>
          5 5 9 4 3.</_></rects>
      <tilted>0</tilted></_>
    <_>
      <rects>
        <_>
          5 2 3 4 -1.</_>
        <_>
          5 4 3 2 2.</_></rects>
      <tilted>0</tilted></_>
    <_>
      <rects>
        <_>
          5 3 1 8 -1.</_>
        <_>
          5 7 1 4 2.</_></rects>
      <tilted>0</tilted></_>
    <_>
      <rects>
        <_>
          5 3 1 12 -1.</_>
        <_>
          5 7 1 4 3.</_></rects>
      <tilted>0</tilted></_>
    <_>
      <rects>
        <_>
          5 3 6 1 -1.</_>
        <_>
          7 3 2 1 3.</_></rects>
      <tilted>0</tilted></_>
    <_>
      <rects>
        <_>
          5 3 5 10 -1.</_>
        <_>
          5 8 5 5 2.</_></rects>
      <tilted>0</tilted></_>
    <_>
      <rects>
        <_>
          5 4 1 8 -1.</_>
        <_>
          5 8 1 4 2.</_></rects>
      <tilted>0</tilted></_>
    <_>
      <rects>
        <_>
          5 4 6 1 -1.</_>
        <_>
          7 4 2 1 3.</_></rects>
      <tilted>0</tilted></_>
    <_>
      <rects>
        <_>
          5 4 9 6 -1.</_>
        <_>
          8 4 3 6 3.</_></rects>
      <tilted>0</tilted></_>
    <_>
      <rects>
        <_>
          5 5 1 3 -1.</_>
        <_>
          5 6 1 1 3.</_></rects>
      <tilted>0</tilted></_>
    <_>
      <rects>
        <_>
          5 6 1 2 -1.</_>
        <_>
          5 7 1 1 2.</_></rects>
      <tilted>0</tilted></_>
    <_>
      <rects>
        <_>
          5 6 6 5 -1.</_>
        <_>
          8 6 3 5 2.</_></rects>
      <tilted>0</tilted></_>
    <_>
      <rects>
        <_>
          5 6 8 4 -1.</_>
        <_>
          9 6 4 4 2.</_></rects>
      <tilted>0</tilted></_>
    <_>
      <rects>
        <_>
          5 7 1 2 -1.</_>
        <_>
          5 8 1 1 2.</_></rects>
      <tilted>0</tilted></_>
    <_>
      <rects>
        <_>
          5 8 3 2 -1.</_>
        <_>
          6 8 1 2 3.</_></rects>
      <tilted>0</tilted></_>
    <_>
      <rects>
        <_>
          5 8 4 1 -1.</_>
        <_>
          7 8 2 1 2.</_></rects>
      <tilted>0</tilted></_>
    <_>
      <rects>
        <_>
          5 8 4 2 -1.</_>
        <_>
          7 8 2 2 2.</_></rects>
      <tilted>0</tilted></_>
    <_>
      <rects>
        <_>
          5 9 1 3 -1.</_>
        <_>
          5 10 1 1 3.</_></rects>
      <tilted>0</tilted></_>
    <_>
      <rects>
        <_>
          5 9 6 1 -1.</_>
        <_>
          7 9 2 1 3.</_></rects>
      <tilted>0</tilted></_>
    <_>
      <rects>
        <_>
          5 15 8 3 -1.</_>
        <_>
          5 16 8 1 3.</_></rects>
      <tilted>0</tilted></_>
    <_>
      <rects>
        <_>
          6 0 6 2 -1.</_>
        <_>
          6 0 3 1 2.</_>
        <_>
          9 1 3 1 2.</_></rects>
      <tilted>0</tilted></_>
    <_>
      <rects>
        <_>
          6 0 5 2 -1.</_>
        <_>
          6 1 5 1 2.</_></rects>
      <tilted>0</tilted></_>
    <_>
      <rects>
        <_>
          6 0 6 2 -1.</_>
        <_>
          6 1 6 1 2.</_></rects>
      <tilted>0</tilted></_>
    <_>
      <rects>
        <_>
          6 0 6 3 -1.</_>
        <_>
          6 1 6 1 3.</_></rects>
      <tilted>0</tilted></_>
    <_>
      <rects>
        <_>
          6 0 7 2 -1.</_>
        <_>
          6 1 7 1 2.</_></rects>
      <tilted>0</tilted></_>
    <_>
      <rects>
        <_>
          6 0 7 3 -1.</_>
        <_>
          6 1 7 1 3.</_></rects>
      <tilted>0</tilted></_>
    <_>
      <rects>
        <_>
          6 1 4 3 -1.</_>
        <_>
          8 1 2 3 2.</_></rects>
      <tilted>0</tilted></_>
    <_>
      <rects>
        <_>
          6 1 6 8 -1.</_>
        <_>
          8 1 2 8 3.</_></rects>
      <tilted>0</tilted></_>
    <_>
      <rects>
        <_>
          6 1 8 8 -1.</_>
        <_>
          10 1 4 8 2.</_></rects>
      <tilted>0</tilted></_>
    <_>
      <rects>
        <_>
          6 1 5 4 -1.</_>
        <_>
          6 3 5 2 2.</_></rects>
      <tilted>0</tilted></_>
    <_>
      <rects>
        <_>
          6 1 6 6 -1.</_>
        <_>
          6 3 6 2 3.</_></rects>
      <tilted>0</tilted></_>
    <_>
      <rects>
        <_>
          6 1 7 4 -1.</_>
        <_>
          6 3 7 2 2.</_></rects>
      <tilted>0</tilted></_>
    <_>
      <rects>
        <_>
          6 2 8 7 -1.</_>
        <_>
          10 2 4 7 2.</_></rects>
      <tilted>0</tilted></_>
    <_>
      <rects>
        <_>
          6 2 5 3 -1.</_>
        <_>
          6 3 5 1 3.</_></rects>
      <tilted>0</tilted></_>
    <_>
      <rects>
        <_>
          6 3 6 1 -1.</_>
        <_>
          8 3 2 1 3.</_></rects>
      <tilted>0</tilted></_>
    <_>
      <rects>
        <_>
          6 3 7 3 -1.</_>
        <_>
          6 4 7 1 3.</_></rects>
      <tilted>0</tilted></_>
    <_>
      <rects>
        <_>
          6 4 1 2 -1.</_>
        <_>
          6 5 1 1 2.</_></rects>
      <tilted>0</tilted></_>
    <_>
      <rects>
        <_>
          6 4 1 3 -1.</_>
        <_>
          6 5 1 1 3.</_></rects>
      <tilted>0</tilted></_>
    <_>
      <rects>
        <_>
          6 4 6 1 -1.</_>
        <_>
          8 4 2 1 3.</_></rects>
      <tilted>0</tilted></_>
    <_>
      <rects>
        <_>
          6 8 2 2 -1.</_>
        <_>
          7 8 1 2 2.</_></rects>
      <tilted>0</tilted></_>
    <_>
      <rects>
        <_>
          6 13 4 4 -1.</_>
        <_>
          6 13 2 2 2.</_>
        <_>
          8 15 2 2 2.</_></rects>
      <tilted>0</tilted></_>
    <_>
      <rects>
        <_>
          6 15 2 2 -1.</_>
        <_>
          7 15 1 2 2.</_></rects>
      <tilted>0</tilted></_>
    <_>
      <rects>
        <_>
          6 15 6 3 -1.</_>
        <_>
          6 16 6 1 3.</_></rects>
      <tilted>0</tilted></_>
    <_>
      <rects>
        <_>
          7 0 2 18 -1.</_>
        <_>
          7 9 2 9 2.</_></rects>
      <tilted>0</tilted></_>
    <_>
      <rects>
        <_>
          7 1 3 4 -1.</_>
        <_>
          8 1 1 4 3.</_></rects>
      <tilted>0</tilted></_>
    <_>
      <rects>
        <_>
          7 1 2 16 -1.</_>
        <_>
          7 9 2 8 2.</_></rects>
      <tilted>0</tilted></_>
    <_>
      <rects>
        <_>
          7 1 6 4 -1.</_>
        <_>
          10 1 3 4 2.</_></rects>
      <tilted>0</tilted></_>
    <_>
      <rects>
        <_>
          7 1 4 4 -1.</_>
        <_>
          7 3 4 2 2.</_></rects>
      <tilted>0</tilted></_>
    <_>
      <rects>
        <_>
          7 2 1 3 -1.</_>
        <_>
          7 3 1 1 3.</_></rects>
      <tilted>0</tilted></_>
    <_>
      <rects>
        <_>
          7 2 4 8 -1.</_>
        <_>
          9 2 2 8 2.</_></rects>
      <tilted>0</tilted></_>
    <_>
      <rects>
        <_>
          7 3 3 8 -1.</_>
        <_>
          8 3 1 8 3.</_></rects>
      <tilted>0</tilted></_>
    <_>
      <rects>
        <_>
          7 3 6 1 -1.</_>
        <_>
          9 3 2 1 3.</_></rects>
      <tilted>0</tilted></_>
    <_>
      <rects>
        <_>
          7 3 6 4 -1.</_>
        <_>
          9 3 2 4 3.</_></rects>
      <tilted>0</tilted></_>
    <_>
      <rects>
        <_>
          7 3 6 12 -1.</_>
        <_>
          7 3 3 6 2.</_>
        <_>
          10 9 3 6 2.</_></rects>
      <tilted>0</tilted></_>
    <_>
      <rects>
        <_>
          7 3 5 6 -1.</_>
        <_>
          7 5 5 2 3.</_></rects>
      <tilted>0</tilted></_>
    <_>
      <rects>
        <_>
          7 3 5 12 -1.</_>
        <_>
          7 7 5 4 3.</_></rects>
      <tilted>0</tilted></_>
    <_>
      <rects>
        <_>
          7 3 6 12 -1.</_>
        <_>
          7 7 6 4 3.</_></rects>
      <tilted>0</tilted></_>
    <_>
      <rects>
        <_>
          7 4 2 1 -1.</_>
        <_>
          8 4 1 1 2.</_></rects>
      <tilted>0</tilted></_>
    <_>
      <rects>
        <_>
          7 4 4 6 -1.</_>
        <_>
          7 6 4 2 3.</_></rects>
      <tilted>0</tilted></_>
    <_>
      <rects>
        <_>
          7 5 3 6 -1.</_>
        <_>
          7 7 3 2 3.</_></rects>
      <tilted>0</tilted></_>
    <_>
      <rects>
        <_>
          7 5 5 6 -1.</_>
        <_>
          7 7 5 2 3.</_></rects>
      <tilted>0</tilted></_>
    <_>
      <rects>
        <_>
          7 5 6 3 -1.</_>
        <_>
          7 6 6 1 3.</_></rects>
      <tilted>0</tilted></_>
    <_>
      <rects>
        <_>
          7 7 4 6 -1.</_>
        <_>
          7 9 4 2 3.</_></rects>
      <tilted>0</tilted></_>
    <_>
      <rects>
        <_>
          7 8 2 1 -1.</_>
        <_>
          8 8 1 1 2.</_></rects>
      <tilted>0</tilted></_>
    <_>
      <rects>
        <_>
          7 8 1 10 -1.</_>
        <_>
          7 13 1 5 2.</_></rects>
      <tilted>0</tilted></_>
    <_>
      <rects>
        <_>
          7 9 2 1 -1.</_>
        <_>
          8 9 1 1 2.</_></rects>
      <tilted>0</tilted></_>
    <_>
      <rects>
        <_>
          7 9 4 6 -1.</_>
        <_>
          7 11 4 2 3.</_></rects>
      <tilted>0</tilted></_>
    <_>
      <rects>
        <_>
          7 12 8 2 -1.</_>
        <_>
          7 12 4 1 2.</_>
        <_>
          11 13 4 1 2.</_></rects>
      <tilted>0</tilted></_>
    <_>
      <rects>
        <_>
          7 15 1 2 -1.</_>
        <_>
          7 16 1 1 2.</_></rects>
      <tilted>0</tilted></_>
    <_>
      <rects>
        <_>
          7 16 1 2 -1.</_>
        <_>
          7 17 1 1 2.</_></rects>
      <tilted>0</tilted></_>
    <_>
      <rects>
        <_>
          8 0 2 2 -1.</_>
        <_>
          8 1 2 1 2.</_></rects>
      <tilted>0</tilted></_>
    <_>
      <rects>
        <_>
          8 0 2 18 -1.</_>
        <_>
          8 9 2 9 2.</_></rects>
      <tilted>0</tilted></_>
    <_>
      <rects>
        <_>
          8 1 3 1 -1.</_>
        <_>
          9 1 1 1 3.</_></rects>
      <tilted>0</tilted></_>
    <_>
      <rects>
        <_>
          8 1 2 3 -1.</_>
        <_>
          9 1 1 3 2.</_></rects>
      <tilted>0</tilted></_>
    <_>
      <rects>
        <_>
          8 1 2 4 -1.</_>
        <_>
          9 1 1 4 2.</_></rects>
      <tilted>0</tilted></_>
    <_>
      <rects>
        <_>
          8 1 1 8 -1.</_>
        <_>
          8 5 1 4 2.</_></rects>
      <tilted>0</tilted></_>
    <_>
      <rects>
        <_>
          8 1 3 4 -1.</_>
        <_>
          9 1 1 4 3.</_></rects>
      <tilted>0</tilted></_>
    <_>
      <rects>
        <_>
          8 1 1 10 -1.</_>
        <_>
          8 6 1 5 2.</_></rects>
      <tilted>0</tilted></_>
    <_>
      <rects>
        <_>
          8 1 3 6 -1.</_>
        <_>
          9 1 1 6 3.</_></rects>
      <tilted>0</tilted></_>
    <_>
      <rects>
        <_>
          8 1 2 4 -1.</_>
        <_>
          8 3 2 2 2.</_></rects>
      <tilted>0</tilted></_>
    <_>
      <rects>
        <_>
          8 1 2 15 -1.</_>
        <_>
          8 6 2 5 3.</_></rects>
      <tilted>0</tilted></_>
    <_>
      <rects>
        <_>
          8 2 6 9 -1.</_>
        <_>
          10 2 2 9 3.</_></rects>
      <tilted>0</tilted></_>
    <_>
      <rects>
        <_>
          8 3 6 2 -1.</_>
        <_>
          10 3 2 2 3.</_></rects>
      <tilted>0</tilted></_>
    <_>
      <rects>
        <_>
          8 3 2 6 -1.</_>
        <_>
          8 5 2 2 3.</_></rects>
      <tilted>0</tilted></_>
    <_>
      <rects>
        <_>
          8 3 6 8 -1.</_>
        <_>
          10 3 2 8 3.</_></rects>
      <tilted>0</tilted></_>
    <_>
      <rects>
        <_>
          8 3 3 2 -1.</_>
        <_>
          8 4 3 1 2.</_></rects>
      <tilted>0</tilted></_>
    <_>
      <rects>
        <_>
          8 3 3 3 -1.</_>
        <_>
          8 4 3 1 3.</_></rects>
      <tilted>0</tilted></_>
    <_>
      <rects>
        <_>
          8 4 6 1 -1.</_>
        <_>
          10 4 2 1 3.</_></rects>
      <tilted>0</tilted></_>
    <_>
      <rects>
        <_>
          8 4 3 3 -1.</_>
        <_>
          8 5 3 1 3.</_></rects>
      <tilted>0</tilted></_>
    <_>
      <rects>
        <_>
          8 4 3 6 -1.</_>
        <_>
          8 6 3 2 3.</_></rects>
      <tilted>0</tilted></_>
    <_>
      <rects>
        <_>
          8 4 5 3 -1.</_>
        <_>
          8 5 5 1 3.</_></rects>
      <tilted>0</tilted></_>
    <_>
      <rects>
        <_>
          8 5 2 3 -1.</_>
        <_>
          8 6 2 1 3.</_></rects>
      <tilted>0</tilted></_>
    <_>
      <rects>
        <_>
          8 5 6 8 -1.</_>
        <_>
          11 5 3 8 2.</_></rects>
      <tilted>0</tilted></_>
    <_>
      <rects>
        <_>
          8 6 3 3 -1.</_>
        <_>
          8 7 3 1 3.</_></rects>
      <tilted>0</tilted></_>
    <_>
      <rects>
        <_>
          8 6 4 3 -1.</_>
        <_>
          8 7 4 1 3.</_></rects>
      <tilted>0</tilted></_>
    <_>
      <rects>
        <_>
          8 7 6 3 -1.</_>
        <_>
          10 7 2 3 3.</_></rects>
      <tilted>0</tilted></_>
    <_>
      <rects>
        <_>
          8 9 3 4 -1.</_>
        <_>
          8 11 3 2 2.</_></rects>
      <tilted>0</tilted></_>
    <_>
      <rects>
        <_>
          8 12 4 2 -1.</_>
        <_>
          10 12 2 2 2.</_></rects>
      <tilted>0</tilted></_>
    <_>
      <rects>
        <_>
          8 15 2 3 -1.</_>
        <_>
          8 16 2 1 3.</_></rects>
      <tilted>0</tilted></_>
    <_>
      <rects>
        <_>
          9 0 1 8 -1.</_>
        <_>
          9 4 1 4 2.</_></rects>
      <tilted>0</tilted></_>
    <_>
      <rects>
        <_>
          9 0 1 10 -1.</_>
        <_>
          9 5 1 5 2.</_></rects>
      <tilted>0</tilted></_>
    <_>
      <rects>
        <_>
          9 0 4 2 -1.</_>
        <_>
          11 0 2 2 2.</_></rects>
      <tilted>0</tilted></_>
    <_>
      <rects>
        <_>
          9 1 1 4 -1.</_>
        <_>
          9 3 1 2 2.</_></rects>
      <tilted>0</tilted></_>
    <_>
      <rects>
        <_>
          9 1 3 4 -1.</_>
        <_>
          10 1 1 4 3.</_></rects>
      <tilted>0</tilted></_>
    <_>
      <rects>
        <_>
          9 1 1 10 -1.</_>
        <_>
          9 6 1 5 2.</_></rects>
      <tilted>0</tilted></_>
    <_>
      <rects>
        <_>
          9 1 3 5 -1.</_>
        <_>
          10 1 1 5 3.</_></rects>
      <tilted>0</tilted></_>
    <_>
      <rects>
        <_>
          9 1 2 7 -1.</_>
        <_>
          10 1 1 7 2.</_></rects>
      <tilted>0</tilted></_>
    <_>
      <rects>
        <_>
          9 1 4 1 -1.</_>
        <_>
          11 1 2 1 2.</_></rects>
      <tilted>0</tilted></_>
    <_>
      <rects>
        <_>
          9 1 2 8 -1.</_>
        <_>
          9 5 2 4 2.</_></rects>
      <tilted>0</tilted></_>
    <_>
      <rects>
        <_>
          9 1 3 4 -1.</_>
        <_>
          9 3 3 2 2.</_></rects>
      <tilted>0</tilted></_>
    <_>
      <rects>
        <_>
          9 1 4 15 -1.</_>
        <_>
          9 6 4 5 3.</_></rects>
      <tilted>0</tilted></_>
    <_>
      <rects>
        <_>
          9 2 1 3 -1.</_>
        <_>
          9 3 1 1 3.</_></rects>
      <tilted>0</tilted></_>
    <_>
      <rects>
        <_>
          9 2 2 8 -1.</_>
        <_>
          9 2 1 4 2.</_>
        <_>
          10 6 1 4 2.</_></rects>
      <tilted>0</tilted></_>
    <_>
      <rects>
        <_>
          9 2 3 9 -1.</_>
        <_>
          10 2 1 9 3.</_></rects>
      <tilted>0</tilted></_>
    <_>
      <rects>
        <_>
          9 2 2 8 -1.</_>
        <_>
          9 6 2 4 2.</_></rects>
      <tilted>0</tilted></_>
    <_>
      <rects>
        <_>
          9 3 4 7 -1.</_>
        <_>
          11 3 2 7 2.</_></rects>
      <tilted>0</tilted></_>
    <_>
      <rects>
        <_>
          9 3 3 8 -1.</_>
        <_>
          9 7 3 4 2.</_></rects>
      <tilted>0</tilted></_>
    <_>
      <rects>
        <_>
          9 4 2 14 -1.</_>
        <_>
          9 4 1 7 2.</_>
        <_>
          10 11 1 7 2.</_></rects>
      <tilted>0</tilted></_>
    <_>
      <rects>
        <_>
          9 4 6 1 -1.</_>
        <_>
          11 4 2 1 3.</_></rects>
      <tilted>0</tilted></_>
    <_>
      <rects>
        <_>
          9 4 4 5 -1.</_>
        <_>
          11 4 2 5 2.</_></rects>
      <tilted>0</tilted></_>
    <_>
      <rects>
        <_>
          9 4 4 3 -1.</_>
        <_>
          9 5 4 1 3.</_></rects>
      <tilted>0</tilted></_>
    <_>
      <rects>
        <_>
          9 5 6 1 -1.</_>
        <_>
          11 5 2 1 3.</_></rects>
      <tilted>0</tilted></_>
    <_>
      <rects>
        <_>
          9 5 2 3 -1.</_>
        <_>
          9 6 2 1 3.</_></rects>
      <tilted>0</tilted></_>
    <_>
      <rects>
        <_>
          9 5 3 6 -1.</_>
        <_>
          9 7 3 2 3.</_></rects>
      <tilted>0</tilted></_>
    <_>
      <rects>
        <_>
          9 7 2 1 -1.</_>
        <_>
          10 7 1 1 2.</_></rects>
      <tilted>0</tilted></_>
    <_>
      <rects>
        <_>
          9 7 1 2 -1.</_>
        <_>
          9 8 1 1 2.</_></rects>
      <tilted>0</tilted></_>
    <_>
      <rects>
        <_>
          9 7 3 1 -1.</_>
        <_>
          10 7 1 1 3.</_></rects>
      <tilted>0</tilted></_>
    <_>
      <rects>
        <_>
          9 7 1 3 -1.</_>
        <_>
          9 8 1 1 3.</_></rects>
      <tilted>0</tilted></_>
    <_>
      <rects>
        <_>
          9 8 2 1 -1.</_>
        <_>
          10 8 1 1 2.</_></rects>
      <tilted>0</tilted></_>
    <_>
      <rects>
        <_>
          9 8 3 1 -1.</_>
        <_>
          10 8 1 1 3.</_></rects>
      <tilted>0</tilted></_>
    <_>
      <rects>
        <_>
          9 9 2 1 -1.</_>
        <_>
          10 9 1 1 2.</_></rects>
      <tilted>0</tilted></_>
    <_>
      <rects>
        <_>
          9 9 3 1 -1.</_>
        <_>
          10 9 1 1 3.</_></rects>
      <tilted>0</tilted></_>
    <_>
      <rects>
        <_>
          9 16 1 2 -1.</_>
        <_>
          9 17 1 1 2.</_></rects>
      <tilted>0</tilted></_>
    <_>
      <rects>
        <_>
          10 1 2 1 -1.</_>
        <_>
          11 1 1 1 2.</_></rects>
      <tilted>0</tilted></_>
    <_>
      <rects>
        <_>
          10 1 1 2 -1.</_>
        <_>
          10 2 1 1 2.</_></rects>
      <tilted>0</tilted></_>
    <_>
      <rects>
        <_>
          10 1 2 4 -1.</_>
        <_>
          10 3 2 2 2.</_></rects>
      <tilted>0</tilted></_>
    <_>
      <rects>
        <_>
          10 3 1 2 -1.</_>
        <_>
          10 4 1 1 2.</_></rects>
      <tilted>0</tilted></_>
    <_>
      <rects>
        <_>
          10 3 2 6 -1.</_>
        <_>
          11 3 1 6 2.</_></rects>
      <tilted>0</tilted></_>
    <_>
      <rects>
        <_>
          10 3 4 1 -1.</_>
        <_>
          12 3 2 1 2.</_></rects>
      <tilted>0</tilted></_>
    <_>
      <rects>
        <_>
          10 3 4 2 -1.</_>
        <_>
          12 3 2 2 2.</_></rects>
      <tilted>0</tilted></_>
    <_>
      <rects>
        <_>
          10 4 3 12 -1.</_>
        <_>
          10 10 3 6 2.</_></rects>
      <tilted>0</tilted></_>
    <_>
      <rects>
        <_>
          10 4 8 7 -1.</_>
        <_>
          14 4 4 7 2.</_></rects>
      <tilted>0</tilted></_>
    <_>
      <rects>
        <_>
          10 5 1 3 -1.</_>
        <_>
          10 6 1 1 3.</_></rects>
      <tilted>0</tilted></_>
    <_>
      <rects>
        <_>
          10 5 4 7 -1.</_>
        <_>
          12 5 2 7 2.</_></rects>
      <tilted>0</tilted></_>
    <_>
      <rects>
        <_>
          10 6 8 5 -1.</_>
        <_>
          14 6 4 5 2.</_></rects>
      <tilted>0</tilted></_>
    <_>
      <rects>
        <_>
          10 7 6 4 -1.</_>
        <_>
          12 7 2 4 3.</_></rects>
      <tilted>0</tilted></_>
    <_>
      <rects>
        <_>
          10 7 4 5 -1.</_>
        <_>
          12 7 2 5 2.</_></rects>
      <tilted>0</tilted></_>
    <_>
      <rects>
        <_>
          10 8 3 3 -1.</_>
        <_>
          11 8 1 3 3.</_></rects>
      <tilted>0</tilted></_>
    <_>
      <rects>
        <_>
          10 9 2 1 -1.</_>
        <_>
          11 9 1 1 2.</_></rects>
      <tilted>0</tilted></_>
    <_>
      <rects>
        <_>
          10 13 1 2 -1.</_>
        <_>
          10 14 1 1 2.</_></rects>
      <tilted>0</tilted></_>
    <_>
      <rects>
        <_>
          10 15 2 3 -1.</_>
        <_>
          10 16 2 1 3.</_></rects>
      <tilted>0</tilted></_>
    <_>
      <rects>
        <_>
          11 2 2 1 -1.</_>
        <_>
          12 2 1 1 2.</_></rects>
      <tilted>0</tilted></_>
    <_>
      <rects>
        <_>
          11 3 4 10 -1.</_>
        <_>
          11 3 2 5 2.</_>
        <_>
          13 8 2 5 2.</_></rects>
      <tilted>0</tilted></_>
    <_>
      <rects>
        <_>
          11 5 4 8 -1.</_>
        <_>
          11 5 2 4 2.</_>
        <_>
          13 9 2 4 2.</_></rects>
      <tilted>0</tilted></_>
    <_>
      <rects>
        <_>
          11 6 2 1 -1.</_>
        <_>
          12 6 1 1 2.</_></rects>
      <tilted>0</tilted></_>
    <_>
      <rects>
        <_>
          11 6 2 2 -1.</_>
        <_>
          12 6 1 2 2.</_></rects>
      <tilted>0</tilted></_>
    <_>
      <rects>
        <_>
          11 6 2 6 -1.</_>
        <_>
          12 6 1 6 2.</_></rects>
      <tilted>0</tilted></_>
    <_>
      <rects>
        <_>
          11 8 2 2 -1.</_>
        <_>
          12 8 1 2 2.</_></rects>
      <tilted>0</tilted></_>
    <_>
      <rects>
        <_>
          11 9 3 4 -1.</_>
        <_>
          12 9 1 4 3.</_></rects>
      <tilted>0</tilted></_>
    <_>
      <rects>
        <_>
          11 10 2 2 -1.</_>
        <_>
          12 10 1 2 2.</_></rects>
      <tilted>0</tilted></_>
    <_>
      <rects>
        <_>
          11 10 1 4 -1.</_>
        <_>
          11 12 1 2 2.</_></rects>
      <tilted>0</tilted></_>
    <_>
      <rects>
        <_>
          11 11 1 6 -1.</_>
        <_>
          11 13 1 2 3.</_></rects>
      <tilted>0</tilted></_>
    <_>
      <rects>
        <_>
          11 12 1 2 -1.</_>
        <_>
          11 13 1 1 2.</_></rects>
      <tilted>0</tilted></_>
    <_>
      <rects>
        <_>
          11 13 3 3 -1.</_>
        <_>
          12 13 1 3 3.</_></rects>
      <tilted>0</tilted></_>
    <_>
      <rects>
        <_>
          11 15 1 3 -1.</_>
        <_>
          11 16 1 1 3.</_></rects>
      <tilted>0</tilted></_>
    <_>
      <rects>
        <_>
          11 16 2 1 -1.</_>
        <_>
          12 16 1 1 2.</_></rects>
      <tilted>0</tilted></_>
    <_>
      <rects>
        <_>
          12 0 2 16 -1.</_>
        <_>
          12 0 1 8 2.</_>
        <_>
          13 8 1 8 2.</_></rects>
      <tilted>0</tilted></_>
    <_>
      <rects>
        <_>
          12 0 4 10 -1.</_>
        <_>
          12 0 2 5 2.</_>
        <_>
          14 5 2 5 2.</_></rects>
      <tilted>0</tilted></_>
    <_>
      <rects>
        <_>
          12 3 3 4 -1.</_>
        <_>
          13 3 1 4 3.</_></rects>
      <tilted>0</tilted></_>
    <_>
      <rects>
        <_>
          12 5 2 8 -1.</_>
        <_>
          12 5 1 4 2.</_>
        <_>
          13 9 1 4 2.</_></rects>
      <tilted>0</tilted></_>
    <_>
      <rects>
        <_>
          12 7 2 6 -1.</_>
        <_>
          12 7 1 3 2.</_>
        <_>
          13 10 1 3 2.</_></rects>
      <tilted>0</tilted></_>
    <_>
      <rects>
        <_>
          12 7 3 4 -1.</_>
        <_>
          13 7 1 4 3.</_></rects>
      <tilted>0</tilted></_>
    <_>
      <rects>
        <_>
          12 7 4 4 -1.</_>
        <_>
          14 7 2 4 2.</_></rects>
      <tilted>0</tilted></_>
    <_>
      <rects>
        <_>
          12 7 6 3 -1.</_>
        <_>
          15 7 3 3 2.</_></rects>
      <tilted>0</tilted></_>
    <_>
      <rects>
        <_>
          12 8 2 1 -1.</_>
        <_>
          13 8 1 1 2.</_></rects>
      <tilted>0</tilted></_>
    <_>
      <rects>
        <_>
          12 8 2 2 -1.</_>
        <_>
          13 8 1 2 2.</_></rects>
      <tilted>0</tilted></_>
    <_>
      <rects>
        <_>
          12 8 4 1 -1.</_>
        <_>
          14 8 2 1 2.</_></rects>
      <tilted>0</tilted></_>
    <_>
      <rects>
        <_>
          12 8 2 3 -1.</_>
        <_>
          12 9 2 1 3.</_></rects>
      <tilted>0</tilted></_>
    <_>
      <rects>
        <_>
          12 8 2 9 -1.</_>
        <_>
          12 11 2 3 3.</_></rects>
      <tilted>0</tilted></_>
    <_>
      <rects>
        <_>
          12 9 2 2 -1.</_>
        <_>
          13 9 1 2 2.</_></rects>
      <tilted>0</tilted></_>
    <_>
      <rects>
        <_>
          12 10 2 3 -1.</_>
        <_>
          13 10 1 3 2.</_></rects>
      <tilted>0</tilted></_>
    <_>
      <rects>
        <_>
          12 11 2 1 -1.</_>
        <_>
          13 11 1 1 2.</_></rects>
      <tilted>0</tilted></_>
    <_>
      <rects>
        <_>
          12 11 3 3 -1.</_>
        <_>
          13 11 1 3 3.</_></rects>
      <tilted>0</tilted></_>
    <_>
      <rects>
        <_>
          13 5 1 3 -1.</_>
        <_>
          13 6 1 1 3.</_></rects>
      <tilted>0</tilted></_>
    <_>
      <rects>
        <_>
          13 8 3 1 -1.</_>
        <_>
          14 8 1 1 3.</_></rects>
      <tilted>0</tilted></_>
    <_>
      <rects>
        <_>
          13 8 2 2 -1.</_>
        <_>
          13 8 1 1 2.</_>
        <_>
          14 9 1 1 2.</_></rects>
      <tilted>0</tilted></_>
    <_>
      <rects>
        <_>
          13 9 2 2 -1.</_>
        <_>
          14 9 1 2 2.</_></rects>
      <tilted>0</tilted></_>
    <_>
      <rects>
        <_>
          14 3 3 8 -1.</_>
        <_>
          15 3 1 8 3.</_></rects>
      <tilted>0</tilted></_>
    <_>
      <rects>
        <_>
          15 2 3 12 -1.</_>
        <_>
          15 6 3 4 3.</_></rects>
      <tilted>0</tilted></_>
    <_>
      <rects>
        <_>
          15 11 2 6 -1.</_>
        <_>
          15 13 2 2 3.</_></rects>
      <tilted>0</tilted></_></features></cascade>
</opencv_storage>
